{"n_inputs":24,"layers":[{"nodes":[{"weights":[-0.6100444965572484,-0.04602285181174148,-1.0988248100379359,0.9609556275576288,-0.17528458291031893,1.3267740064460785,1.012664307644212,-1.017040587126826,0.11211174099465854,0.30531364743481826,1.6046386427706725,0.984817798645599,0.3211645027710816,-0.5142315282342562,-0.5460035522594566,1.056820549580033,-0.3389002840648551,1.2232694082643625,-0.11940590932398731,-0.606931644140731,-0.39727503908915945,0.05139572408767737,0.8912878333016283,0.7297642786070183],"bias":0.5612349247647898},{"weights":[1.8459855256135247,0.8805078551187752,-2.471781908569784,0.7546951270595333,-0.5269849699624536,-0.9099426546550218,1.1133156992217699,-0.23179053623876575,0.5523034514458458,0.359989281125372,-0.15753661353658704,0.6171954821906954,-0.6889392903520704,0.0853419462204909,-1.0751644436060257,-0.6793866111191633,-1.2040649244809194,1.075816869479489,0.24659840822205942,1.246483429179075,0.47656256481418846,-0.24979826534836092,0.49537023395082863,0.40686272414339264],"bias":0.3806874751346534},{"weights":[-0.5587856470961137,-1.7257528406985623,-0.9267084035075321,-0.2784450935194567,-1.3806798184011242,-0.6460501109460928,-1.2878391512402934,0.010030774140096857,-0.4157286326016973,-0.6199566288410278,-0.8862807455879852,1.0241856824428286,-0.28399457731096556,1.0545724906475522,-0.5301357058947387,0.03509524113103637,0.6324215185097902,1.1958472651717884,1.1048286156160367,1.3357331113083215,-0.811843878753007,0.9855966589617171,0.20324275469655867,-0.07105613839396466],"bias":0.8853608619533989},{"weights":[-0.12429052164386992,1.0568243817338454,0.1321907967549365,-0.25940162289310004,0.39124588193071624,0.19498040099566186,1.252640140729882,-0.6137171050371188,-1.2009189070490889,0.19648847263843192,-1.4572842294556685,0.3957883805607652,-0.8077803554434939,0.3885695723421569,0.008707068399459839,-0.06386024694296309,-0.44583377764348553,-0.3500246549764184,-0.6227003240396766,0.014012878228085987,-1.003601235777658,1.679722442698256,-0.23782112960544904,0.5922038434974234],"bias":0.9716709708425691},{"weights":[-0.42366477459322366,-0.1729873719798567,-1.4752546562086224,0.5792483830091448,1.9475784464797752,-0.32441292994981924,0.2935722827808443,0.39729806918626637,0.3835260511530227,0.05108402163749236,0.045031369267798924,0.9137478947167292,0.7144795788375895,1.0229167242258463,1.2467038203309597,-0.9622847513046405,0.35733829499302794,0.18512634762630256,-0.16080436792458794,0.9203738664186403,-0.47974925111520295,0.5532907606056472,-0.022448699756871845,0.044593070502136206],"bias":0.5076216985191437},{"weights":[1.2938925727471942,-2.086630859242454,-1.397494962291396,0.3148817763453922,-0.7786930815536194,1.0985015793775992,-1.423372500364303,1.2746406895896214,1.216258257244726,0.3484536224737897,-0.6865813555641648,-0.43399457351350795,-0.3544166170260383,-0.8030141224908282,0.16004473540072428,0.16424559151825102,-0.0294390553237538,0.015419730450824981,-0.4910586905005426,0.27149937017058345,0.6913573143815315,0.5422687748018777,0.46305178840993266,0.5717048105492769],"bias":0.8358336681386552},{"weights":[1.842242182127976,0.1609736516881105,1.5169733674509585,0.769340195689087,-0.02398392379108208,-0.3256218251034358,-1.745419007419605,1.1247283384059812,-0.18064857504816453,1.0132055531139033,0.5701333765460751,0.4684436346801787,0.3728611571584288,0.41228936336249855,0.7759600630843922,-0.10120264034480063,0.17253029462220065,-0.5276016974506849,0.8208720913302309,0.37809669120703615,0.3518800043186321,0.644233204711956,0.4651943345232403,1.079142643623588],"bias":-0.897767986880184},{"weights":[1.2419677685295198,-1.2866387371571466,-1.4662005799853752,-1.5389346791029817,-1.4323095573706062,0.6282661416612271,0.627872610538041,0.5275322852632455,-0.5956821205627049,-1.1294793476138176,-0.8079899228545573,-0.3122842484719137,-0.4248491097358027,1.100723633134889,2.084408740566355,-0.5935288338594202,-0.18045617618693374,-0.5273481604550907,0.4631222780163798,2.228262216081401,-0.5495965938126839,-1.454013850042124,-0.49207741802442717,0.22290009039244352],"bias":0.9404296331743014},{"weights":[0.5622072586489603,-1.4943444827103671,0.7735647624449927,0.23917052986873016,-1.8026515320801748,-0.2913277322383523,0.182636472345774,-1.289135928127746,-0.09384937473509847,-0.7918918670552109,0.24890629489386853,-1.5550399423805643,0.438200257127773,1.5756180643339008,-0.946905050556991,0.7409488247506646,0.5746619804111126,-0.04861809377331114,-0.5237843222694087,-0.28348718343533885,0.2919493127435564,-0.43781460955234985,-1.3026591811418073,-0.021020681522481904],"bias":-0.7254591640305107},{"weights":[-1.4513138004683142,0.47560315199160563,0.20942051050058244,-0.987085461283171,2.46055372173999,-0.2524138958283133,0.4275593560142576,0.7390029694415904,0.8732647222359032,0.4114019661130295,-1.3766084307067161,-0.9779741972251389,-0.44247419451376957,0.19939209690201387,0.20918520495880774,0.956774629245777,-0.6125315501813245,0.5769167312011929,0.07689015264742266,-1.845095584491031,0.06841875897101662,-0.1659453985194185,-0.5485455882060825,-0.11905004131093178],"bias":1.6873245160625814},{"weights":[1.33485434877286,-0.01694031922594022,-0.949047815743189,-1.7544104202816457,0.15634879627482942,-0.13971012535629257,0.277826970409387,0.38942351406161746,-0.6545900017350395,-1.5599324917637465,-0.3268100604669858,0.191774177852746,-0.999048503795656,-1.022537391747429,0.062297262233077313,1.120505013564595,-0.44841042701655154,1.777047321281335,0.698058146588756,-0.1705745240924713,-0.9927886570727273,-0.8584344224251996,-0.57214361338587,-0.23394420616521666],"bias":-0.04325436276400696},{"weights":[-0.5985320637924376,0.08498204025021236,-0.38210865850492215,-0.5573376774919319,0.6565676710015798,0.3611099572728309,2.137729892155038,-0.7221285980160833,-0.4506158465626776,-0.13042276556883825,0.8032683086321507,-0.260563922218793,-0.2568038767902796,0.45742134944275825,-0.27213911709292493,0.8270208770883044,-0.3829772425872031,-0.06071505188839624,0.5760420809845979,-0.42195963375953016,-0.4585720421932391,0.4450872589737366,-0.3611434756449067,-0.12056889992267676],"bias":-0.09036869855784856},{"weights":[-1.2423208035500704,-1.5503303385724894,-0.7133143373180009,1.2421728207168579,-1.2725114806330808,-0.27994345748235394,-1.2427584969975318,-0.8687726738408583,-0.18519846425656153,-0.8888877668376712,-1.785949902301288,-0.0874214573030077,-0.17289377345542276,0.8495770338755234,-0.9520230935550029,-0.7004657151860711,-0.6166165116184503,-0.24798447118074188,-0.2576703892271448,0.32173753039056724,0.27221903352178045,-0.7373905683170123,0.9090116060467623,-1.8316068895165312],"bias":0.16640426308660572},{"weights":[-0.41185684865474076,-0.1504450998738635,-0.12666885850793194,-0.5503251940940133,-0.272236192934349,-0.49948973991218537,2.16653702642229,-1.64092345371464,0.540396513152464,0.12956625056404264,0.292136819132901,-1.2595757876223415,1.1827592595366583,1.8725097926281504,1.4662299371152012,0.0014390265620810028,-0.3984408426215312,0.6467377322199448,1.8525996682000074,-0.16581135677901251,-0.05437383628752268,-0.12504747344025594,-0.4644251122393961,0.16323936315525994],"bias":1.2752622155384923},{"weights":[0.16369173255418723,-1.8722370765491074,-0.9187345405455701,-1.1447558634252126,0.25172480903528915,-0.09731176116247395,0.10296439932121995,-0.24688444013849542,0.2441619080091405,0.6862253565817352,-0.6903526409938503,0.34335775239161936,-1.8512742980414545,-0.7240539024305699,-1.5971586304206806,-0.6366039700273693,-0.5231603671985732,-2.4230363831818953,1.7979825194576489,-0.11008752454637716,-2.0166635564460123,0.23929854495670944,-1.0441364320213302,-0.979727790912665],"bias":0.24325586871863933},{"weights":[-0.145989696473942,0.10303537864340367,1.7270245756794582,-0.2545843739460186,-0.7462961819815805,0.7501365536720657,0.8791433715591586,-1.5308897051267665,-0.5536929541137359,1.0325411491716348,-0.8035393614671782,-0.035485990345175716,0.7420856606741557,0.43154991840824597,-0.17733979908393177,0.038828450205839464,-0.6734256020201786,0.4884179151519367,-0.31804863560089003,-1.0513551099850176,-0.5784486581299514,0.7697972863191693,-1.3822899900263157,-0.08773046621163062],"bias":1.788361432640364}]},{"nodes":[{"weights":[-0.11484925248678915,1.666078268349927,-0.1600158643306595,1.1379934641127691,-1.1217159565613002,0.9202391761006298,-1.2840103162208278,0.7066226359856522,0.8316941386130098,-0.7091511426689218,0.28861593704684907,1.1264044526469434,-1.182917695358919,0.5618364576312737,0.6955833722605669,-0.40030969730185106],"bias":0.39491652234404573},{"weights":[-0.6941563428014301,1.5724727645536098,0.9863656349860416,-0.0055923082646801014,1.6870662759222046,1.761852866391556,0.005223977916468975,0.19125998873549718,0.39643677087807216,0.8423467401851656,1.2572824881258375,0.480058207245744,0.4097786035248636,-0.20630192616596843,-1.0931798588341077,-0.5844727452652585],"bias":-1.0432917380617797},{"weights":[-1.0091899690111243,-0.4077007927503512,0.03375243742567675,-0.4333277028111936,-1.1412350378088791,-1.4093541637575109,-0.1413801265211231,-0.8399606262062527,-1.7881066653199333,-0.932104878005065,-0.4089713290409351,0.3933786216029155,-0.34093935688367233,0.13525478910451638,-1.2820830416412627,-0.13606522074222804],"bias":-0.8202366296719739},{"weights":[0.949545345685732,1.2871543730939456,0.5427183647261445,0.5963321653048039,0.0038435061413245875,-1.3573197113213344,-1.5453353133020358,-0.7633224091387334,-0.7552646297773102,0.827328186065055,0.9181414595943016,0.5586969660001606,-0.6922022014881942,0.44677743746934284,-0.2975806996449544,1.1724727818286287],"bias":0.6718467759974045},{"weights":[-0.7344484885704037,-0.4773812186414144,-1.1220753469087212,-0.4498731677420661,-0.12446104946955945,0.5612455628246052,-1.9554436022001658,0.29768763425864336,0.5656351668755066,0.0628013224213111,0.5013644415734125,-0.8747661592287783,-0.5932829521782627,-0.2601281837098482,0.333147403034359,1.2919655522968283],"bias":0.4072339001655231},{"weights":[-0.25795883577627693,-0.32930497195082176,0.6266312163587336,1.3471303129092955,0.76889312000222,0.24970706732593764,0.3690627327596508,0.9502440869993524,0.7129233207271674,1.1471210138243697,-0.40586196899883287,-1.0553228535896275,-0.744245674837483,-0.9057281816804753,-1.5145398796824963,-1.7746945607335565],"bias":0.4920922470497838},{"weights":[-0.5907920544271671,-0.7214945702751052,0.39462225698115827,-1.0419635866827164,-0.20540293693247996,-0.13129925510009405,-1.3795877468346185,-0.5302047518921273,0.1262415347767052,-0.3723614737402847,-0.1019869939319233,-1.6590033887113225,0.13187049672517345,-1.104206302881409,0.14508474495063003,-1.2594018192298315],"bias":-0.43370001175609796},{"weights":[0.028593581146797845,-0.35868359003906636,0.8154657864456619,0.20365638372689843,-2.1828436176945196,1.402254040918906,0.787827592889113,1.2336233712591294,-0.4867854188886045,-0.8269629459679365,0.16796682577294184,-1.289191719742044,0.4762531595293825,-0.6202019797566575,-1.3983535076557694,0.39041517139999093],"bias":0.23339817454339845}]},{"nodes":[{"weights":[-0.483284761476797,0.11992374787699493,0.21865668691815277,1.1732571824568605,-1.5680942125697046,0.15942836368112212,-0.11446102993533339,0.031031256132559804],"bias":-1.7781279935040872},{"weights":[1.5718070600212486,0.22762746066374837,0.04240525006054749,0.35278304303981944,-0.09043771265474712,-1.0578864629545992,1.870074299562438,-0.9017296841111343],"bias":-1.2668201283831793},{"weights":[0.3562406267173139,-1.371651919456792,0.32468281897948337,0.9669812564857546,1.6370879729171324,0.41968251391837497,1.022537821816376,1.1671136154311765],"bias":1.9183576260518562},{"weights":[-0.32546580256393215,0.2860960767936759,-0.23581409658052974,-1.4175820004142985,-0.44045713119269786,0.3666754784342509,-0.5692802100437129,0.9180629752636054],"bias":1.2276265040811996}]}]}