{"n_inputs":24,"layers":[{"nodes":[{"weights":[0.09947900693586148,-0.8630850472286447,-0.6816409076970443,1.3103431609948717,0.511473647087456,-0.8992030172428335,-0.6594515561044516,0.22574867496954554,1.392566771560737,0.3462238473498569,1.4812982830688146,-1.075163624548991,-0.3502365513411032,-0.6148698698282068,1.6744188231018127,0.4108661412416605,-1.6193215045681508,-1.3761983309254582,-0.8504761333127819,-0.20077896574989662,-0.7814059400386248,-0.3545349425428892,-0.9211619383328196,0.2479416942872375],"bias":0.09149999882384688},{"weights":[0.3831412169559681,0.4441382918782577,-0.8112246368166894,0.007031984414712651,0.9744794935365003,0.45031543312059896,0.9814263085794706,-1.6357011702288005,-0.13881155250503932,-0.3213277543994123,-0.4964475717815891,1.2177270510490719,-1.8383702083023548,-0.32464504813448675,0.2468650362158302,-0.37127181198137654,0.2576485833862879,0.8084809676547133,2.0451532859260473,-0.18112964169822937,1.2265679508296559,0.989084736173133,0.5615043270717942,-0.043825635038911494],"bias":0.30105381482721066},{"weights":[1.3854348931919023,-0.9068998197661134,-0.7598450260927007,0.4495286601268712,-1.0820091085884502,1.6176321107671892,1.9860064968610165,-0.722343560087913,0.35375745753337984,-0.0982133731667994,1.114961856247266,-0.42081745541586424,-0.5186568588856293,1.0965720733640572,1.0558459734165135,-0.8905441873151336,0.8119703644184184,0.41937656236728205,-0.7086035597538716,-0.8022953190716218,0.27279967981623954,0.6373940149268096,0.6614167657226827,1.3313423218328138],"bias":-0.7976343330714308},{"weights":[0.4653606105156194,0.8512504370880765,-1.265878404857064,0.5671496511007555,1.612575967811794,-0.5401178727003285,-0.2041875431875634,0.4059194671954141,-0.8036254645712654,0.1576492620572818,0.6248487919502304,-0.7253318400414456,-0.7365223270189901,0.39090685810499504,-1.0825147112544877,0.7573758567467856,0.17362830948797303,-0.9356296729884201,-0.66897087528693,-0.13858154472055814,-1.4842472168343368,0.6330184610089734,-0.02791725562552913,0.5383220630280675],"bias":0.5361443002964765},{"weights":[0.3216457619512904,1.0222556848851907,-0.23160649226018964,0.08278384421978055,-0.9051899375089655,0.6364742021220479,0.6463912688956364,-1.0790145610041215,0.7911710706739015,-0.07543491537011114,-0.6623862039440152,1.375354850516796,-1.1577943213677329,0.018787996276835375,-0.2528155713012572,1.1896919669301258,-0.7336535933271578,0.32937361241701973,0.7602192766741374,-0.0029937257172070186,0.3038800798975666,0.6019134993359656,0.6156315455395074,-0.30735314501085037],"bias":0.6629312178696549},{"weights":[0.6094756171265344,-0.053508244573004266,-1.391136251947285,-0.026560267470485677,-2.5459202781905352,1.1246439766561245,-0.3323804003467696,1.6302619150958757,-0.15262884863736428,-0.05002702329797232,1.0473516652790327,-0.1767436280738865,-0.9664225795904131,-0.28785193623689875,0.32595460326416814,-0.6279560831270241,0.4585607698915907,1.2827814152757007,1.4154417573621871,-0.38795872333914116,1.4511315466719736,0.5936177840573928,0.854196949510134,0.47256346892865175],"bias":0.6009313232033165},{"weights":[-1.6259487982424672,1.0421505090071874,-0.7623278921024,0.14457403880037756,1.894796870623778,-0.7082062040574334,2.179580546098304,-0.9032723564936355,0.794597469480313,0.1047636091569966,-0.5049891937982579,0.43275627771028063,-1.6314881641037426,0.5280663530836128,0.29852825814351575,0.6031420566455278,1.3023683190016482,1.2368509180925118,0.08435703123638977,-1.3567605103498144,-0.01237146163489826,0.020482742585244948,-0.46238872724411206,-0.25133292631188636],"bias":1.2978359923606024},{"weights":[0.7331455135538727,0.464224247869363,1.1206606191460495,-1.0642115023840792,0.6538269202410619,-0.3504652719698848,0.23729217795832658,2.0560314195728564,0.7415660049005803,-0.5903259723139783,1.2665463070504541,1.9223430257953618,-1.2878424758781049,-1.029483470962558,-0.19061596082885995,0.5470401538528439,-1.1972366865110555,1.3330652489432322,-0.009028818516636797,0.7571132399496137,-0.2542254383046886,0.9141372612041244,0.7925530418661929,-0.28726029361224437],"bias":-1.172336712757529},{"weights":[0.8706839806334226,0.06290268221212847,0.2388812002788989,1.2206588612447535,-1.0250704521045684,-0.5725141347168143,0.9855392225234791,0.5573381334361314,-0.8640879155921338,1.1821373920234972,-0.9402829891768953,-0.5931132057799696,-1.3930562678938236,-0.9160538292289915,-1.2448385200380143,-1.307707724614825,1.259169802641151,-0.3506046897092161,-0.51529644065634,-0.4038601781715099,0.389343805986792,-2.0822204805643425,0.6351011661571457,0.4031915697997431],"bias":0.32195986894275896},{"weights":[0.8490844303995553,1.2412032829182609,1.7258235476525046,-1.7961297530579714,-2.531684241421954,0.6093854571443269,0.6149692950788583,0.4781122560601787,0.2297739886402122,-0.03133088313768141,-0.06565885191489818,0.1317536233023862,-0.47946434743902855,-0.6245854227042273,0.6216248761459856,0.09666307062134039,-0.44810833322123556,-0.607751949809116,0.8379113443608915,0.3161207717701242,-0.2524644100184115,-0.6851511947083243,-1.0581708271572432,-0.6891808637873631],"bias":-0.3067493842953327},{"weights":[-0.7682960093621299,1.537521595301098,1.86357663384382,0.32626333793491025,2.3235417710377226,0.1466459435113983,-2.0540352377003486,-0.9072704569835958,1.1990591030210902,0.40979915563182095,-0.18205367067596742,0.18687949388135333,0.8849927159748004,0.5763393907109855,-0.25216767053274625,-0.09864744451578683,0.5889136342140765,0.8699000366670581,-1.4313223445638086,-1.0871025272052817,-0.04833544950382737,-0.8526067841482339,0.10062882912882413,-0.11931874179604192],"bias":0.029312272229523373},{"weights":[-0.34236379327362654,-0.4971823945732934,-0.9692677307409518,-1.0181130110963172,-0.7772962749157335,-0.2288892929233238,-0.5996570548936017,1.3872782435316204,-0.9567465377706545,-0.47105762055926803,-0.6938965972019031,-0.8056000723777357,-0.7149417260027678,0.8963910690334632,-0.5516326708358552,0.2770117420819176,0.12071703313120388,0.8962489839884153,-0.1299008563645757,1.071642578042258,-0.7254486235650512,0.5658809730049134,0.9098740801284129,2.4898090110211015],"bias":-0.18031394732407052},{"weights":[-2.496372470536155,1.2181693980867134,0.10375858581156512,-0.06370599189888992,-0.5493567204986687,0.0029120436742805234,0.9172933894583901,0.24043063852430627,0.7964140282031053,-0.2805047019018657,0.7553707544656026,-0.4969722113825402,-0.7760046079518321,-1.6576717261167961,-0.435442672264224,0.6756826915943462,0.901201000065548,-0.4674526311110504,-0.15148608740127745,-0.14279458785520754,-0.7970437024347751,-0.17619263944138097,0.44104968651608606,-0.6125725930124185],"bias":0.5443176840600896},{"weights":[0.8754634262836951,-0.9702012682786223,-1.5150459667839657,0.6725963300995403,-0.03662074872980839,-0.7300548438715065,0.2906918805381049,-0.9225162805856127,0.9431107078065356,0.17953029691931477,-0.7518632731248718,-1.1880823386577504,-0.3365130027449867,-0.6277089833882833,0.6079314123613222,0.35189719409918896,0.8307663755330271,-0.8589031608993488,0.39745831174233653,-0.4291511549198884,0.3034042266841729,-0.5063777342150931,0.8574142938925627,-0.17447052977868172],"bias":1.2870094354267931},{"weights":[0.8367400897262286,-0.006008211143316025,0.6289760089144119,0.6551753312297875,0.47241859132759356,0.4302073377094091,-1.1899230733054804,-0.25395764923031205,-0.5766132476926501,-1.6062955322444443,-1.3047143578119937,1.2632970847502067,-0.31701974250969456,1.589449076174452,-1.141750509585289,-1.105453134062111,0.915056307011612,-1.3317495461731017,0.12192412431391018,1.8617816668959017,-0.27256366932207493,0.4279355259658496,0.03874831345200654,-0.14507601148108332],"bias":-0.1394671362308521},{"weights":[0.5880673539439487,1.1281948442037357,0.09288980402497801,0.9563446796236283,-0.48187691163603624,-0.07350339894649895,-0.892424030225306,1.6533638511552207,-0.6187687445714098,0.0077676013933773574,0.9943572196076642,1.3167291088306148,0.006110565558765962,1.3423928297996979,0.8014586678124064,0.11550146916538348,-1.188953522951168,0.021723149985330925,-1.7512242148177906,1.2384229186109286,-0.7521022983127291,-0.34545813967606664,-0.18781246953325328,0.6581065774947908],"bias":0.6238749399432486}]},{"nodes":[{"weights":[-0.9324448568604738,1.5218658128154725,1.078211003368974,0.6417442615347001,0.8941906959735814,0.5405979590089832,1.307610328920514,-0.15790916501561936,-0.26271828185353474,0.17253542695016383,-0.056686412015981374,-0.07018374703023003,-0.08711494008437884,0.6328176676051857,-0.4764416710827095,0.33178314081433613],"bias":-0.7217630502620594},{"weights":[0.5751067925330625,-0.2554368295858879,-0.547667381884599,-0.45887377045188793,-1.4938701995675874,1.5808425402950907,-1.2927307175266516,1.1139739695255642,-0.6457147961662635,1.6216220004912993,1.3495686890835055,0.42965432355605687,-0.3170479633837918,-0.8926438663309183,1.2090972346097975,0.44127727057353805],"bias":-1.7410775015552418},{"weights":[0.4613563695400865,0.08538922181054415,-0.22305163148546825,-0.004459120736862068,0.9214879234096619,2.2242239796612675,-1.5231196867159638,0.8681166111937054,1.2628535788749573,1.535329415924187,0.34775829785457946,0.1469805428415103,-0.45538727518020905,0.39400324106063345,0.949470967996699,-0.7031064857658801],"bias":2.1297428333153574},{"weights":[-0.2735412447955989,0.7126350162853464,-1.3084014229688459,0.8823479223385051,0.39947498007839344,1.0479149498235578,0.4543751955812816,-0.9786493682578902,-1.5367195518653787,-0.16784145775293632,0.9358113145692417,0.5483311137357338,-0.8300859521789523,0.037671431842849434,1.7583249023055847,1.2658396110288894],"bias":-0.1608583909345855},{"weights":[-0.3175330298628827,-0.36407410573489185,0.18594480851275424,-0.8199281751322279,-1.217596473344109,0.27095924464354804,0.17634667412706517,0.4114152724068671,0.8414178741794606,1.33522707334445,-0.9033682220288954,0.87318887713633,-0.9706403413046891,-0.5299442538359751,-0.16398074754850472,-1.7110201720910503],"bias":1.224859523119099},{"weights":[-0.11509885455415579,1.453585649952583,0.1397788105419248,-0.20779028723622783,0.22230775782798495,0.24611145744985768,-0.4013537710323357,0.5915696403983607,0.1319542232678425,0.29231398540318604,0.7324072556815763,0.4879456981634167,0.7416237229007955,0.03446126357099612,-0.210294251999396,-0.5293817994725819],"bias":-1.9669485786070433},{"weights":[-0.6028558143892682,0.04802259428793747,-0.24303053941472452,0.3010599901151084,-0.31448938414891053,-0.9387114683642476,1.9125488685544163,-0.12388710245756426,0.79705907888422,-1.150920391519938,1.1795085709402446,-0.2805459025346765,1.2119547465476261,-0.446879006517465,-0.6819074151851766,-0.4766601385367969],"bias":0.3092165501224073},{"weights":[0.8443245268576954,-0.01057464020804709,-1.1413096669798328,-0.1028645407320117,-1.4065055217369904,-0.474130418262148,1.1068646389750316,1.2081667167566341,0.14560987730385294,-1.1122272519352188,0.48053319176455245,0.38138356679478136,1.7674977010208912,0.6132802155133713,-1.301187359242677,0.31843011620415107],"bias":1.4278206818607306}]},{"nodes":[{"weights":[0.15984616107291344,-0.5913770622253379,-1.156329033939018,-1.9929455773076246,1.0753279496678112,-0.31970341845881056,0.927993747990532,0.37777182823939387],"bias":-0.4191262780548486},{"weights":[1.1251007721392632,-1.7927962429562667,-0.8068875163651127,-0.46989366621369144,0.5627472324131494,-0.1818647027171714,0.32865834117836945,0.01736957252382916],"bias":1.5109186097802743},{"weights":[1.4948376754322974,-0.7476622882909671,-0.08389773672206224,-0.6764575182021986,-0.4824712565285771,0.22931945750727215,-1.2111020867292028,-1.3563354238201977],"bias":0.7244954268282054},{"weights":[-0.6358958771405396,-0.10348784989355411,0.7056736237315026,-0.5077333624885884,0.07476147797129783,-0.8903709139922577,-0.6528427486500986,0.0787388289520722],"bias":0.041677461748834216}]}]}