{"n_inputs":24,"layers":[{"nodes":[{"weights":[-3.5140314404980546,1.4227583750166788,1.770226324250315,-0.9039131254491004,-0.10407448232927752,0.2024220173640692,1.698320806495375,0.8855598588730246,1.4190082151469092,-0.5848968822461644,0.04927759908569767,-0.36170644480505487,0.4271249545384253,-0.49693423297906913,-0.6174022037858206,0.6433180672743509,0.6190054370058546,-0.17371742522578754,-1.6976439633703673,-0.001493482256683283,0.325714680034489,0.2890598865950263,-0.2912763899033843,-0.4498107978718809],"bias":0.8249465795082915},{"weights":[0.801437907693134,0.3623190605922991,-2.426017361547827,0.84579627636406,3.004159905628765,0.5764951398772643,0.8476603472730758,-0.3739693817948871,-0.5163979991117587,-0.5534440087131957,-0.49454336806987176,1.2761130754212036,-0.19380223718402723,-0.1279681003735873,0.15981420962974807,-0.45882730875914574,-2.2285509658125804,-0.829276762579629,1.4261682472026402,0.579192349109213,0.7488991179527533,0.19863210012753504,-0.5452897420009647,-0.6991871355757351],"bias":1.261940480529261},{"weights":[2.4380949676576025,-1.9009112957666363,-2.0855881644478376,-0.6258463072922975,-2.969810310164533,2.5366788726338214,0.1233826000616273,-2.0687160329232075,0.8147773068844587,0.7601216091234021,-0.08371070948032874,0.783682950039212,-0.5654949255400588,0.4036108410469533,1.0892222639264957,1.162486172219213,0.4955881533647906,0.7816880420104947,1.7017607440655524,0.010414286806135927,0.3335909942566556,1.1830513964199938,0.3869018603430253,-0.2282141854745508],"bias":1.4028643547593058},{"weights":[1.6094752249466922,0.17552450581130033,1.7792380037942257,-0.8174881047084704,0.9231271121925322,0.5944017244567419,-3.6884509211643337,2.7839336339223224,1.2382753299537823,0.1786751624434806,-1.468396269562639,-0.05702672117512861,1.934675729319817,-1.5294072220806216,-0.3215283179974875,0.15970171287264975,-1.8977064008629132,0.4783504304937983,-1.085923309437714,1.7773330312040188,0.4758667561302444,0.7719938625924596,0.10402767821414896,0.02772875442354722],"bias":0.6749599116849964},{"weights":[-0.19096382204242549,0.0988179113833001,1.037472083635623,-1.3601009805330504,-0.1205196044424106,1.5038080682327035,2.260555535595196,-0.28600063807485904,-0.9821917991528984,1.0611394069081646,2.101934233059453,-1.7351730655037108,0.759124884302689,0.5332226705756615,-0.9734911558661318,-1.5017119604868012,-0.12486235255871649,-1.347634029600017,2.1823296222956357,1.3208146064729738,3.2311516282248407,-0.6673991679809698,1.3101793123834822,1.2232240851109752],"bias":-0.49873956768644184},{"weights":[0.5165811753469006,0.11371621568097484,0.786972180988205,0.8604515523700696,1.080732712410053,-2.179322440694726,-1.2947796050777574,-1.9609691306851176,1.3321055294871822,-0.15426157261015466,-0.015398602548988088,0.4908615911988328,0.6723304490931,-1.3834423233683135,-1.1291943250993044,0.7703011664387767,-1.0675281284960794,0.1820877916790353,-0.3494106644674587,0.28605294444804913,-1.6142453508473875,0.05521594184117235,1.3953646213427722,-0.1843494940955938],"bias":1.3002135551388685},{"weights":[-0.5068074179767458,-0.14776269508285292,0.3472038966364468,1.6474787722161666,-2.2752697108569473,-1.0697054419380707,2.2384254270380275,-1.7606396232721342,-0.00952939787453698,1.788073805106394,0.19194109829377623,0.21712575866851927,-0.31994009761338027,-1.3712383650315385,-1.0600940144299529,0.5903631913886834,-0.13680357193747666,-1.1065758158076666,2.990079547684184,-2.091263007963081,-0.060238182842841693,0.5331495495098827,0.4585632518912384,0.04382482312168961],"bias":0.4808014256864595},{"weights":[1.15796916903542,0.7298046422911333,0.12079516056220112,2.616581519334362,1.1049669852430923,-0.8542306642600068,0.9547900592785912,1.9532794292381743,1.2568235348332495,1.543166452268989,-0.7268241133190391,0.12957953908440484,-0.2808231360031472,0.13686926921601283,0.7922638438043755,-1.4687568074000814,1.3560653795503073,1.6123715826797242,-1.2148647597076432,0.2245407292635346,-1.5171607687545852,0.27778616879730755,-1.6347085422410808,-0.45569546111565207],"bias":-0.3621255146044613},{"weights":[-0.9556231423034164,0.1832304628866552,0.7815515176357029,0.3997972498464688,0.7107690180547652,0.44166858523784747,-1.814460641616736,1.576396706586672,0.5201454244303448,-0.5438248043329527,0.1757557617014922,0.3665603930798643,0.5936021478659083,-0.5369077545721237,0.7676015378707155,-0.40978338445037576,-1.6691130892859567,0.20584076639620483,-2.106414108838077,2.075287921604298,1.5185482876819096,0.4259572594385803,-0.5014439201052721,0.47248091792822744],"bias":-0.664222769170807},{"weights":[-1.4161423167631604,-0.6834853073958573,-0.5997933722444202,-0.6074615093462249,-2.3365958706159087,0.020351089089636953,-1.1199460071905112,-1.4391153495650757,-0.3493329416752287,-0.9318200726202478,-2.0432039897372385,-0.10273938109880648,0.4292773864205822,-0.6635895169102805,2.8003962924461088,0.44956326720889406,0.9521448220736948,1.9727380573305753,1.9833689250401247,-1.6709670484713617,-0.8175931032599131,0.18413708683706376,0.06756060915570589,1.002350464075117],"bias":0.9078042019444468},{"weights":[-1.3999371315828004,-0.8516031449729166,-2.2095187682449544,-1.864346179030701,-0.6878095794434532,-0.8693510860171404,1.9515374686248208,0.9168452899118128,-0.8411162575855251,1.615226829033905,-0.029756644705617823,0.8495050214680627,0.437244158817324,-0.710410891626316,-1.158229823525476,-0.22441951850222863,-0.7719616493802655,-1.5620407692328042,1.4158984320232717,-0.3319573983013961,0.5025275133946696,-0.2578940576886787,-1.5325077186406475,-0.1543502715159474],"bias":-1.0017887692984928},{"weights":[0.2504322555046959,-1.0975348864225674,-0.5698049741610968,0.9669522303502108,0.3738893270524515,-2.168885776053769,0.42055604113931383,0.42794466411137144,0.7017063509815122,0.094072295739454,0.08122028931708822,1.4942097292703342,-1.4258610055657774,-0.3133303481225801,-1.6979033201720697,-0.9378787342334164,1.8358475845333315,-0.5200770684816554,1.468316738188734,0.27253893383091415,0.11158955461178986,-0.3961437092033091,0.13193739835485818,-3.0356588004779086],"bias":0.4156142308017024},{"weights":[1.18458486708348,1.1335741015357523,2.5892452993860733,-1.6995887849760376,-0.8820815413020725,-0.4104301023474757,0.14429469508213474,0.2657146870728159,-1.0138538867338045,-0.22857620689781183,1.3613595110193226,0.6839599191625594,-1.886280041074012,-0.26109566555846375,-0.08578328755190953,0.8935782611511621,0.09208791170858947,-1.908716138762792,0.41029695452002,1.598044255582077,-2.4010184582827647,0.8930878028075804,-0.879464685880995,-0.8879998236665487],"bias":-0.8832062368183935},{"weights":[0.3014178516733056,-0.16306902010138777,-1.339056567597568,0.09006841768466708,0.7884247677774332,-1.1423184939500053,-1.3019967971341389,0.10691448127272632,-1.3153809690919238,1.0057273632838106,0.389272875742526,2.433258571142967,-0.7162169550767636,0.42661575734929114,0.37759195876499463,0.8216145751343653,-0.3818168544606265,1.6186374537378894,1.222034387987643,0.1863110839791399,0.18704139617714,-0.5105728681068883,-0.7383615852300486,-0.420770106977599],"bias":1.8746694463222149},{"weights":[-0.7123073548230029,-0.4767100355755218,0.63648069824714,0.6101659043398964,-0.5986286057685499,2.2823613504951754,0.5708973424664137,0.6480274727291562,1.2820260070321865,0.03389659750549353,-1.4791298078570565,0.5039720884042065,1.3682035222727158,-1.1589905607005253,0.2874696843352255,1.1010374828966114,-2.702543800116267,-2.2484696897605154,-1.069668537744639,0.8203096196674982,-0.08578165253001085,-0.4636924747312053,0.1314489229455077,0.9359562456952176],"bias":-1.265023681553685},{"weights":[-0.078792893352292,-0.9088189996933846,-0.611130931725141,-1.404824011807844,-1.1110153621578738,2.0564977402917037,0.3553301226263917,0.7196554952776997,-1.4780762222843458,-0.06289916063129145,-0.9003096247760867,1.509778450422277,-1.5255054242382369,-0.2058512686806964,0.2180600647806879,1.372321566377443,1.4885164834023694,0.2760266653432601,0.7981442366529831,0.2974615507567288,-1.2371488960260155,-0.9628088083420396,0.5897093953144508,-0.25698102189364547],"bias":1.260335660626591}]},{"nodes":[{"weights":[-0.424927313144217,1.3685789955786272,0.9677639290334048,1.1569685243166603,0.41911514180581794,-0.3401934319277405,0.8431427802982286,-1.5600591114349294,-0.5481610833552744,0.9916431730537127,-0.08958585173155814,1.812114705600488,1.0455913079814063,0.789000576207535,0.8296927132436996,1.2809488077004676],"bias":0.6332622200206829},{"weights":[-1.4556530639930148,-0.2489736369136079,1.0621732307746437,0.5609554358131933,-2.154726495263076,-0.06897336971762266,1.0132969184606448,-0.3650205320009338,1.5309732046921862,0.48486521504767416,0.3645746880070007,-0.14979447683350958,-0.5425237826018002,2.028674253728143,0.4094605205134067,-0.7717716891098937],"bias":-1.2009645070859996},{"weights":[0.6277769846807986,-0.027416540195840076,0.7006851030948921,-0.2137102800818053,1.103952734564438,2.044929061609949,-0.7087254470581871,1.8885917971413837,-0.8149094856707073,2.2332618671161284,0.28308256578623503,0.06696943246510904,0.11386089449795556,2.7748839111947436,-0.5344419087244977,0.09194338442698168],"bias":0.001278159748288779},{"weights":[1.4675994888572517,-1.014722545416742,-1.3472528087491755,-1.892753363423728,1.0821208902706834,0.07246428685487136,-1.0031274971449569,-0.7769086191943525,-0.43352815996005817,1.034221724419059,-0.6241362051222271,0.516277290545529,0.8683152945237362,-0.7342825886578503,-0.6230702450794465,-1.139374380223601],"bias":0.5869405086171422},{"weights":[1.5492821406939885,1.334687262528074,-0.16912497796204273,0.27566013287995694,1.741086047837865,-0.6983939966272498,-0.895776596123107,-2.0569721352290813,-2.032269402579688,1.3407793618186616,-1.1488244837946864,1.3051035274183636,-1.795582607112203,0.4832925241781626,0.3039356846802991,0.477060473337011],"bias":0.10927894511635654},{"weights":[0.21567757889936623,-1.1916350064780548,0.2130075032019147,-1.2720325186749235,0.7454836787895909,-1.155707536514743,0.18486202774711247,-0.7104376925389754,-1.1216474084389023,0.3946167516480895,1.3452388651556215,0.1240769364271085,-0.4463890759064281,-0.9901177612088944,0.7768488296646682,-1.765534644764013],"bias":1.4689578577489024},{"weights":[0.6420100459975315,0.11965042169228572,0.3245904344043665,-1.290359646523522,-0.2368412991707123,1.6665894993964103,-3.109343671538013,-0.7629263233509201,1.222334344425061,-1.4161489533720024,-2.375139173024855,-0.39322762412738127,-0.2480770247489711,0.7491911333201648,-1.3496982016979904,0.7258338686427327],"bias":-1.584896857098429},{"weights":[-0.5942053611452438,-0.07274933131358978,1.0681408847746685,-1.950715774221086,-0.762245370120066,-0.5724994330142572,0.7670196112120778,-1.2291991571574,0.18386036051538832,-1.048533053684507,-1.0016699568130916,0.5281667684607391,-1.2083613151585637,0.38721840371147026,-0.19060296466236373,-2.5384407369653723],"bias":0.3970611632511716}]},{"nodes":[{"weights":[-0.09795071143096326,0.9276696451114944,0.1373586882669609,-0.017298438431839744,1.382942777434061,-0.36114188713740847,-1.4371449973709454,1.2628771718549268],"bias":0.8982949726986058},{"weights":[1.4723509824117256,-2.169814245668715,0.1449304288281315,-0.7160606228178472,-0.8651541091133063,3.243861856875916,-1.0515882649999628,1.3357242379877643],"bias":-1.0127631767552594},{"weights":[-1.4045559330194026,-0.11618006108738106,0.4767939214681299,-1.6943850888020595,0.916533724408382,0.7931113085027978,1.7193622579317072,-1.4393428278947016],"bias":0.28586868115185526},{"weights":[-1.2457034192470262,-0.19638814544145328,1.7363992566177124,-1.0403610511990804,0.6743605632945832,1.101350365988495,0.9712429003805808,1.4204161986269903],"bias":-0.012455331770972373}]}]}