{"n_inputs":24,"layers":[{"nodes":[{"weights":[-0.8301057446006364,-0.13365006040238062,-0.5773999204993884,0.6299556840103023,-0.3499824079322127,-0.3943618820428684,1.4014565234387628,-0.620980849576267,0.7637645243120273,-0.4379112694520652,-0.3408240138348665,-0.2131639206163047,-0.28318394802336666,0.2352932984732846,-0.20608664576117777,-0.5535925572019383,0.7129328502214768,-1.3067909101957225,0.862983543073651,1.2332374646856048,0.5971361425553269,0.130146775199721,0.28369228031215954,-0.007728099137351764],"bias":-0.5221296131785171},{"weights":[-1.486409003156457,0.397354231232583,0.6152177293453578,-0.21275556920989763,0.5087355587697963,0.5450027483396913,-1.2309179812778517,-1.0310784328360647,-1.2562791548317147,-0.11328629810755508,0.6108562194353985,-0.4522358411558591,1.8078304803780223,0.4504470581900623,0.7383806278187307,-0.022559568258299575,-0.31958517667353986,0.5147485806026555,1.2811104121502688,0.34517809754109496,-0.28835074080521206,-0.10318406987237436,-0.3215681391827209,-0.4889284572371653],"bias":-0.04769871851187753},{"weights":[0.2507559699981868,1.7129315466809685,-0.6773215838209602,0.5678812248953691,0.4449140199924537,-0.574573796455805,-0.39380934240049115,1.0248863769831202,-0.8633616484024265,-1.7978334538190606,0.22085192443897783,-0.5279313105527939,0.3455533589922968,-0.30613503590464414,-0.9157935553057168,-0.5895594982474494,0.478990623707494,-0.8513887498856507,0.1577966977622396,-0.5396260973578147,1.1936696246063885,1.4697118902865414,-1.3744522378940225,1.0199677944503236],"bias":-0.7663149395532551},{"weights":[-1.4382487115661375,0.19125348779891543,1.8629424871965805,-0.021950008233618437,0.9812730574877555,-0.4923678540148908,0.9522740691301436,-1.181877252129465,-0.4380717514076794,-0.010150694501714684,-1.1107726941245324,0.1962231632153947,-0.15996021647637887,-1.4274520857391169,-0.3580876218741135,0.5104289312031871,-0.2440344450615007,-0.2353478136056967,0.047281203368180674,-1.1138448073743294,0.5563336348870755,-0.3964360416777344,0.2048828882290325,0.30462323624197535],"bias":-0.468947913366855},{"weights":[-1.108851661230602,0.21160423276395957,1.2269218697937516,0.447602917892674,-0.714413988819588,-0.30526134365648183,0.04446065281901465,0.3858265372865401,-1.3842441827577825,-0.4045001712675758,-1.4869631555239462,-0.4545806746120118,0.17430572599706157,0.04836552264628237,-1.0279482379270808,0.06844988307435612,-0.6255442633152483,-0.29365212851630546,0.04485634098969003,0.6681965040598034,-0.864654968704536,0.1149936753059449,0.7464638150014623,0.43360898222175287],"bias":-0.8933115880383389},{"weights":[-0.39047553372510113,1.040654987764039,-0.10980886063332373,0.4300908022687288,-0.2431365934983908,-0.8360536615563277,-1.7185589145428029,0.7333924361523687,0.0070233340491874935,-1.0949635570980687,-0.18990926947811296,0.3246651304229755,-0.6178465312277606,-0.09921342200656458,-0.08896288487206944,-0.981334334756854,0.9095723081528836,0.4479465600797362,1.2076273503403154,0.27302308464150504,-1.087526808790949,-0.2280944367175815,-0.8574197857994658,0.23696388339081056],"bias":0.6963612730677766},{"weights":[0.3192167326033217,0.7468556340713497,-0.20398888799152737,-0.5949840450749756,2.0220856971831247,0.093827014914783,-1.929313569481072,1.25782741647427,0.6665514072841678,-0.01252177151212297,-0.5212600407510558,1.3479812311305337,0.9506351203236951,0.22827939164142175,-0.257717988338292,-0.5207160498586697,1.351083173219341,0.18223991472610596,-0.33831570126008637,0.32588121342981674,-0.6614373635050294,-0.4091848271515402,0.4547769875767236,0.17269490344898725],"bias":0.44584148393657863},{"weights":[1.936397810964432,-0.4038134040571616,-0.4290688119140295,0.40193750197613404,1.536587478589574,-1.0340099286127566,-1.1287153798124645,1.3849841063270911,-0.16210384424508598,-0.5297426989220234,-1.157582230039385,0.8973660406262834,-0.53681763989225,-0.5175226314151741,-0.008271520270625207,-0.18671998338402643,-0.07978406691864254,1.0759604617496026,-0.417291113392636,0.6071302563447925,0.4060257158523673,0.3772792201275368,0.1565428887445947,0.4928883462425619],"bias":-0.52548161523322},{"weights":[0.5048966015793735,1.7031617824068546,-1.6719206721943054,0.3791622072371148,0.9058362156749604,0.38835337947652465,1.2662015215106155,-0.8558654072339225,-0.5433083344211147,0.05160807305045402,-1.276707949215656,0.9618150774451906,-1.8382197449107172,-0.0799145461201349,1.1857125056560702,-0.5614133463890265,-0.17089729388561226,-1.4673155372099886,-0.35030265488611834,1.2394293727262855,-0.1655176180460412,0.6477781301444453,0.15024503966101985,0.8297047674423423],"bias":-1.4360248745679272},{"weights":[0.5167812639586629,-1.049131255659241,0.9050626338407205,0.11640822838499484,-0.33935723731803635,2.0415520802332887,-1.07332980955112,-0.8953698597486675,-1.0766051800720036,-1.335082509855744,-0.7957180489531394,-0.6145188118634992,-0.033084899498849796,-0.368249552025737,-0.32904179292604857,-0.1495580759251494,-1.4567184760235126,0.5571454592969354,1.227034148898828,0.27244072200103486,-0.5317336181574487,-0.25579135099861194,0.7040485301667372,0.33261847558877944],"bias":1.542363093310363},{"weights":[-1.0900641080382438,0.7373971847713797,-0.421301772442936,0.5241084407660499,-1.2024159594937378,0.6978121137305908,-0.2712239442571366,1.270625409541215,-0.7958852127645065,-0.505854538094761,-0.08750030956595492,0.7826060553125321,0.6309833593716467,-0.46582636934754346,-1.5745279990632628,-0.7270345911714091,-0.6656535906213958,0.4199079607437424,-0.7327076543136674,-0.04631131047989054,-1.4585312792479124,-0.7736782279522234,-0.8051437548638436,0.6076445456473836],"bias":0.44205964160013395},{"weights":[-0.34221599299578165,0.04562913549198244,-1.7817491945339463,0.5926885193500144,2.159970717689939,-0.7588537457338023,1.120365638986855,0.6380786317136231,0.15282858345714034,0.5763077717988081,-1.8461978790457432,-0.8101341460446116,-0.6617113319605078,-0.3213276704175434,-0.37281961393329066,-0.144682463102239,0.9378538300353004,0.9619541643082336,-0.5197221288689678,0.713023486599688,0.8074696106489274,0.937104082698968,0.8884097415395567,0.5602603037940426],"bias":0.8898668445800273},{"weights":[0.8039428637481453,0.5462395275290883,-0.7186357142565238,-0.3838257175565199,2.2262836092210616,-0.7527208168437814,1.07452589748858,0.1732530156128802,-0.0439226072374197,0.3591267889541303,0.7871455130476255,0.9298839018543862,-1.4178305702193004,0.5339823993039441,0.3238961394034183,-0.31919081123458726,-1.541471435212548,0.9949990390126998,0.878491651028056,-1.734819633690849,-0.030253784708898,-0.7596882171569967,-0.6695517673898319,0.024307479142726345],"bias":-0.334211559591013},{"weights":[-1.207767400368419,-1.0478984561974616,1.3621917187086503,-0.9346660247503163,0.2896043133511105,-1.2095491375422225,-1.24934269843128,0.3150880872728554,-1.5086917252962033,0.5853691925015699,0.09099621569984256,0.7019820394938521,0.04102228013528057,0.8001856276657191,0.24408341389019145,0.4340416023446808,1.327083933524791,-0.36961759397399535,0.14073622650427198,0.1289912921359489,-2.8278876358262712,0.4080997384386912,0.05564833707618057,0.5323288151412061],"bias":-0.5286461607443453},{"weights":[1.5880929832193889,0.6666699404425578,0.3823717989949608,0.2958620616913268,-2.2894070843676917,1.3664863577660271,0.5450389079053423,-0.24955019882907223,0.9400427065056952,0.32389028346973625,0.15314939622265455,0.8244110467375302,-0.4641644827442095,0.093300785401373,-0.15737624477769396,-0.6498213699009057,0.3936711014092684,-0.03172455847587209,0.4592129139573546,-0.912840838170992,-0.7962891773667898,-0.20773500928923727,-0.6428309598818813,0.0866734668529287],"bias":1.0018742801150635},{"weights":[1.4336237622462378,0.42982786294640624,-0.9219439134763248,-0.4125484443271769,-1.4381252253671308,1.2250753957238174,0.7328447178470467,0.1739548013639359,0.5069477140935342,0.27206673679144033,0.37988939217763534,-0.5327607196336998,0.292017520073264,1.360935818602398,-0.31749985136457204,-1.5191753450685908,-0.7809945637337576,-0.24766774328594154,-0.7149965825370762,0.45425661768948333,1.169128383812564,0.07877050972346994,0.17095776617236083,0.600068314120838],"bias":0.09524861298300306}]},{"nodes":[{"weights":[-1.0433265437321375,-0.6935883114255764,1.6607930142584697,0.3977291221824883,-1.1643531309076556,-0.7173474050312767,-0.2446803752568031,0.93987351247949,0.2142441029972088,1.1156829176120109,1.2202819737930792,1.3261801012314487,0.8370712043265619,-0.34402664768185626,-0.5528806031649571,0.14681257711239062],"bias":-0.8306320996960384},{"weights":[0.8688987677501803,-0.829977574367679,-0.1831292955460687,-0.03445584869796302,-0.3868438294842047,0.1771873739969595,-0.41391033645398145,-0.5281469087411337,0.327535049514237,0.424568240654256,-0.436165174282109,1.0615701996682425,-0.10193890592830358,1.069486174631484,0.9793024950683482,0.8172872245751666],"bias":-0.4998447276279082},{"weights":[-0.8079911009149672,-1.3994481896067472,1.0626295343727183,-0.9696763299561694,1.3603382314626786,0.3989673905697442,0.6741410993520645,1.603932684314398,0.8759822200045313,-0.5072208961754473,0.8478117781260575,1.0895099192140092,-0.06631623579893528,-1.6435563324715892,-0.597096238451197,0.0029216742517020056],"bias":0.10668632437881342},{"weights":[-0.5959606372011631,-0.7174697469026077,0.5937624245413781,-0.28454259659568576,0.169174431075016,-0.5209589093072969,0.2969848343490672,1.9506458299910776,0.41184883351592916,-0.6052146321549795,1.0002528767690593,0.21689863841909135,-0.5201471939638143,-0.4937368602327354,0.11187388243588035,1.2255052539691655],"bias":0.02994499963388926},{"weights":[0.8614373017832573,-0.3298580128664784,0.2341979714386218,0.6854225748584627,1.1696778631835851,-0.4492601389538453,0.4137724969095009,1.5434752177385445,-0.996574410331914,0.9753283602274724,1.844140261417703,0.16223357582875345,0.0438130679440053,-1.0036734604292712,0.26912894512078506,-0.4652878483445077],"bias":-0.9491529473768644},{"weights":[-0.6692572369756571,-0.06623067851019232,0.13846206109492276,0.7739236449037966,-0.03429828348480962,1.3661647712628833,0.612402513457319,-1.1506069480913772,0.10582195585081852,-0.23441819455010093,-0.6857842777339085,2.2043210936026405,1.4404415943688158,1.3796652260794504,-1.2181790152886276,-0.02720676456490229],"bias":0.8283571627347791},{"weights":[0.4696056978586859,0.2139301974907232,-1.012437192765115,0.8927343873327174,0.4460297824658416,-0.16493809607675794,-0.7065408448925409,-0.6871490663673614,0.06788671802134422,1.1512854124247875,0.043897008934306085,-0.05882785403931276,0.19109565764538056,0.6946238025011778,0.6278582884177034,1.26556879952072],"bias":1.194447713037744},{"weights":[1.273103311153975,1.0049017167740004,-1.34323490027428,0.18611036261128747,0.11198997951239824,0.19652709483263983,0.08307217505983405,-0.27369807527781065,-0.07198675902878027,0.20049673580876068,-0.1265978997288814,-0.5756094128556619,-1.701078552947765,-1.0061150536125167,0.5498347763790659,0.08159118971213564],"bias":-0.11968502313157456}]},{"nodes":[{"weights":[-0.08947930224574571,-1.3022060775251925,-0.3966088011102561,0.13147678513277494,-0.6409121988585333,1.3338076304748745,0.4885021485800845,-1.32376322732621],"bias":1.0462330503474826},{"weights":[-0.00025549776521541223,1.6197792604311132,0.5848701695194493,-0.018214515054321312,-0.10974933164417394,1.1953496715020688,0.26974237706559834,-1.2711766164500211],"bias":0.664407175913196},{"weights":[-0.8606725992850318,0.9832586140095974,-0.4216377299215456,0.3940805257724651,0.1626156705409346,-0.7564005166684188,1.6222923715234698,0.08161291385455902],"bias":0.759612205030932},{"weights":[0.39934879695138054,0.5143602699666276,1.2770199865641882,1.2917845024625396,0.711332303662016,0.061797716607993936,-0.21068337808730425,-0.2674683114173196],"bias":-0.22874046120598035}]}]}