{"n_inputs":24,"layers":[{"nodes":[{"weights":[-3.7191239505046965,3.0372432672907363,3.2246957276279002,-0.5793016719127769,0.03207737564043098,0.418224965745152,2.051224474373942,0.16699797043931347,-1.5292619690154445,0.4476594135411548,1.7991128862472172,-0.4814673151259703,-0.19478781086720404,-0.5638301646728523,-1.3644630641232967,-0.9005810346323139,0.05706380135604103,-1.2073380971785344,-1.9318843148833018,0.7179749248687031,-0.7493424975486065,0.028264204504898416,-0.2726251510213671,-1.0343218733356536],"bias":0.7249541253398406},{"weights":[1.820082261972795,-1.6052981235429424,-4.238735240022773,1.465519940265485,2.0979700538037065,-0.6494380363424509,0.16537645817890512,0.5253922395799266,0.046308140237501724,0.8090833382812421,-1.889265703164884,1.6137611658943722,-0.2758845546197475,0.23358482833797897,1.477829364697014,-0.38017426919909125,-0.6289252570863286,2.3575705282913644,-1.492581430466922,0.27231292562803133,0.13492191088824623,0.606912931368214,-0.1754601211739345,-0.5389522843023026],"bias":0.37631756870584937},{"weights":[2.05035322673391,-1.2905889449905654,-0.699120951348887,-0.4432087137507764,-4.675973522749478,2.1212360176265403,1.1040943017518958,0.014555217256253555,1.867095374849615,-0.29823861224960957,-0.1059758764756915,-0.43178372232809265,-1.2005274997046445,1.065594366798515,0.42608247560526574,0.9540697341468225,0.613894421875814,0.4468127474966532,2.5060275174826265,-1.2742662035067582,-0.8764449502478001,-0.496729184975315,-0.6499467938539215,-1.0688118151893777],"bias":0.11916062262773805},{"weights":[2.127656336705874,0.4203060731674544,2.4913708942539685,-0.5164339314017249,-0.09149604829313226,-1.8271340248225394,-2.8570020931422957,0.519245848637406,-0.3672708628186192,0.5092251797695722,-0.7687256717542154,0.7489935956831102,-0.5623469837557545,0.3905615099903955,-0.6573218227033172,1.1506458443645853,0.5339783872456301,2.762821632111332,-1.2177458424280365,-0.5545567069544421,-0.24455959376425215,-0.10897457756245107,-0.24840205418887634,-0.5179782759957803],"bias":0.2377655611079305},{"weights":[-2.252831346405841,-1.042892301332394,0.7165993586606576,-1.6300974491145606,1.4022384011308335,-0.1565455263722872,-0.4304123264359436,-0.729402828449389,0.13422660486735075,0.4977466397907828,-0.8968303584712496,-2.226548147051448,0.3252829141705182,0.41616896680544,-1.1189266049886368,-1.585173942392653,1.1391759037087763,-2.083473206029677,2.795211768442752,0.42053093650081214,-0.2680847530816797,1.3375963636363173,1.6900865532803733,0.6785270441583328],"bias":1.0318148764821773},{"weights":[-1.0065788038375312,0.9600632922577133,-0.11718514443675818,-2.063333743468208,-0.19822347211846275,0.04530728457794103,1.8546065783268402,-0.08802837329244872,-0.44549668919550134,-0.5787909497437378,1.2731147758790287,-1.048050253987993,1.2520030423322024,-0.8516389460133004,-1.0496413454089386,-0.2521775240238289,-0.35073345390510213,-0.4534374038904032,-0.3211122608419981,0.570192563672456,-0.32338722047609497,0.20565184744729711,0.6140735606570225,0.5179294978054058],"bias":0.007874196730771346},{"weights":[1.83602288481332,-2.1544343989485726,0.9407596118099233,1.3730768821821673,0.9396483842635598,-2.128283779960504,0.5839999565511962,-0.026273191453200895,0.6085792974968891,-0.188299268690652,-1.0919516211845084,0.29307995917272095,0.9558413174103022,-1.9848780957287857,1.5374792622703675,0.9108238115661083,0.7439790131195392,0.0019657497498144494,-1.140837134120763,-0.9056718631347948,-2.4474234674958595,0.7159106855772283,0.39379072596131354,-0.35977427721710586],"bias":0.17230040085351805},{"weights":[-0.46669137810545336,-0.20658953220778853,-1.3119747825515915,-2.2344949594661108,-0.9309157213919873,0.42503141531863253,1.5207692764191585,-1.063402944270157,1.502147886848109,1.8359309253707454,1.2708947605138332,-0.6346498350903836,-0.8820100437075403,1.6550498537168623,-1.6744102691455554,-0.010595054524970518,0.804577062721252,0.528692874874418,0.9126199115402605,0.3883261349044768,2.2777536055552288,-0.8612092827172733,-0.9172539462069279,1.616375654265541],"bias":-0.32517392043626225},{"weights":[-0.4149100875799775,-0.9790276422805391,-0.12032407871700615,-0.48685965289152233,0.24095633488197193,-0.31029315074071007,0.8521341599255672,1.009626232249552,0.9149516176197106,-2.2754209502772715,-0.021596598970514053,0.23361593601321798,0.35551603274079124,-0.238211971387396,-0.07738401392119568,1.2140704215257097,-1.1766604533059741,0.6466798905262756,-2.256463458421838,0.29606898391881886,-1.2531131542387792,-0.4806419620107734,0.5789969272737009,0.6175831801292854],"bias":0.11403387717872177},{"weights":[0.27958936164972564,1.034836385360502,-0.14538722991970912,-2.5038770374321517,-0.6757641013668952,0.4735783488883738,1.6952070604630656,-0.21183087994708216,1.079015698229621,-0.22446521935175112,-1.1242353355935049,-1.8669054878739024,-0.6652251227461939,0.9907627591295878,-0.6451259325548695,0.6498187881949584,0.6504141568816202,-0.850540462490638,1.7150185119257308,0.12138117247552567,-0.9297866346940484,-0.9494424825477056,0.1483175392104154,0.3554323558312391],"bias":-3.2335732078972717},{"weights":[0.494173208915614,1.396594305500324,-0.01944637974322959,0.23774202827954105,1.559373471377512,-1.1308203829412657,-2.3221870000831433,0.10448216762315975,-0.9415440077168615,0.0804074095094046,1.1052505281362537,0.8638510910800798,0.2699623397278601,-0.6678959505563709,-0.3447266578768492,-1.0969339366089927,-1.026932026479305,1.1709051466214506,1.8534486968672854,1.820074916829276,0.3076192788586197,0.1136254967360336,0.5543971510675523,0.6133250138674919],"bias":1.57955247418275},{"weights":[0.4376433861060238,-0.09824058430990201,-0.015108090602342472,-0.4446195312976977,0.06313238704090748,-0.19339948269182689,0.28803556227946236,0.6552767581235183,0.10432628713204048,0.9971164212104257,0.6634248542367511,0.270463925126763,-1.8463391618070792,0.9423456364668998,0.08416234164890335,-0.04965980993398898,0.008605944069800482,-1.3681318532893443,-2.0133234691102015,-0.40870544116062557,-0.9158217606856988,-1.630746781051422,3.3809427161531653,1.8120272288975565],"bias":-0.6354377372026325},{"weights":[-1.646945556474724,2.521006082444454,0.05345529345157321,0.4906380346235284,-0.010823487875602222,-0.08364512089018081,-0.6777200284474644,0.17835524752952764,-1.3665199489056776,0.6724899552211243,1.5945975718245955,-0.14116744638415427,0.18433246432460493,1.3603572873061442,1.8043768656129617,-1.8588256575864566,-0.30523377151125247,1.9978361216355025,1.1484617435091535,0.8393945730977427,1.80708912544443,-1.8800627734294446,-0.6597917503423397,0.7193065430296772],"bias":-0.7319262368059383},{"weights":[-0.03631982346739927,-1.686606117181357,0.9436011927442864,-0.3590796903552767,0.6222379406698403,-0.1154882101772893,0.8124461210686976,1.2285601097627243,-0.45043287122757353,0.6283032960378772,-0.5176866603660929,1.4791001586196286,1.084958671956939,-0.39977508399756506,-0.26988354552085275,0.6305185747461547,-0.36330983786433035,0.296466015855153,0.022632760546462502,-0.05036371176457298,-1.9733689874789575,0.40194479215532264,-0.622066407357674,1.0333664199883767],"bias":-0.8391253485571906},{"weights":[-0.4874422031689057,-0.5887984819672237,-0.619084661054385,-1.4776721199061096,0.8093976415609843,-0.477763469339538,0.10862652795753121,0.4813979521218462,0.30165821571640505,2.876932992300736,0.3812364061721204,-2.310196591414142,1.390717217008655,-0.1589355616951407,0.028386550310476086,0.42322154441097226,0.5903216003135174,1.4270280919493552,0.5293526506985378,-2.6584663824147112,-1.8961915758823338,0.4172604567507492,-0.9192638916689146,0.32157072905794504],"bias":-0.296826846396963},{"weights":[-0.6625694141987223,-2.2613506931755385,-0.8062204541127523,0.9815981202976689,0.6816727422703135,1.4045733293512344,-0.6256388774714196,-1.6115316240033832,-0.27632541947227784,-2.303918221878089,-0.24710943148099318,1.0908883703260752,2.364452631066542,0.43300128198287013,-0.9282477352899033,-1.8431555488783662,0.219847742829223,-0.7804476698195979,0.8045416928812448,1.2453190063594424,-0.7720067749811079,-0.3087416257534511,-1.1128097564830899,-1.4561240720878403],"bias":-1.0981789374552817}]},{"nodes":[{"weights":[-0.6492317973571964,0.1996014430745201,-0.12439567148440278,-0.9921880419017652,0.7850045932579655,-1.3033725624657273,0.8282460545517143,0.17090120231623795,-1.2829451937490954,-0.18378466173131158,1.2051134409767126,1.040622971536098,-1.3821465920220812,0.19648067937994762,1.4481287084823709,-0.785111467518941],"bias":1.5251388235596084},{"weights":[-0.7809771283700602,-0.23989838462934432,-0.7872660802983549,-1.3130688975422558,-1.322073165458888,0.9806003123524412,0.3457762525712181,0.7037841098467688,-0.3349659258385158,2.0093343514628392,-0.1526443825999464,-0.37624277240926984,0.5363446286366041,-0.2809722171823171,-0.172971078390084,-0.12094267193577135],"bias":1.5435814077813943},{"weights":[-1.5581520251611796,-1.078091200202483,0.06952136940041521,0.7663962726065324,-1.3285277084631062,-1.1675545197179098,1.6905278228474239,-1.3866916345930012,-0.03536886513560927,-1.295140172109823,-2.8172587464498693,-0.8414559137931077,0.895065661265216,-2.1547210448137313,-0.8373811822840427,1.8652865233702118],"bias":0.48426998342427074},{"weights":[-0.5095217410270667,0.26896984904565996,0.7280370308277185,0.8813724518955486,0.22125692522219517,-0.22975530491212495,-1.9755331830560188,-0.07066823894085202,-0.17670144649563949,1.206538036677651,0.874625897994413,1.8614628228738104,2.712713150316983,0.5306837578599057,1.3224693770888791,0.29977310768530674],"bias":-0.8268750053596721},{"weights":[-0.17978234156534298,-1.722347030832702,1.3969555435919505,-1.8763166147422923,-0.08554371947227932,-1.230195547621837,0.6486857546679033,-1.2604464705288487,1.3134188346719673,0.18974854123152757,-0.042395571852896385,0.9623207455588464,-0.4493632169290706,-0.8419383398070904,-0.010160279500979613,-0.7877010232682768],"bias":-0.4603956530611056},{"weights":[0.8204829574185751,1.4138865798674152,-1.2355760874641923,0.14661263431598007,-1.2254103915341852,-0.5338789669986033,-1.6153069426144984,1.227570666988433,0.8586639173897219,0.15396708955079053,-1.3778782079067478,0.7055027495858986,-2.19882231902704,0.2742395262281698,-1.9022641928729154,0.24366016144767283],"bias":2.621849973693555},{"weights":[1.704661789090653,0.24446330348787637,0.7513513568176452,0.3735122877480276,1.9420346865878562,2.539158558407514,-0.7259915949117125,1.678880632288078,-0.2127894463965299,0.5750629955128769,0.2872001641812953,-1.260291133067729,0.46819869185819135,0.9155622871686024,-0.37484937962760523,-1.9009546385237024],"bias":0.7875249964545181},{"weights":[-0.9014511221106237,-0.0177767113705371,-0.17592446432921127,-0.35897310787240017,1.3176465929745107,0.2727782807544036,0.22993233913405292,1.756960914825486,0.34150017125949794,-2.4979465432013805,-0.18864665918332915,0.21290887991268315,0.7939171556124657,-0.07004906399451821,-1.298222989642021,0.46120663839407805],"bias":0.16710680258682703}]},{"nodes":[{"weights":[-2.1985634690444855,-1.6530065678264065,0.37729924710583596,2.997317264483751,1.4651913487462442,1.3752163608492871,1.2686357749777288,-1.583663740202486],"bias":-0.5408698360378311},{"weights":[1.1838096866922194,-0.648304102948496,-2.007738994485931,-0.16185322771937585,0.24848722014763555,-0.149746081285526,2.1420088123065226,2.225214892266907],"bias":0.1493130022561684},{"weights":[-0.6921059726093892,-1.5615923582991937,-1.1031370677973746,0.34269268901269656,0.20143629994936843,-0.2999029039988181,-1.67022791664297,0.5888722037019563],"bias":0.4147183992850699},{"weights":[-1.1326730648195797,-1.1124216797611723,-1.6240185145147183,-0.5508626989098131,-0.5897466496109667,-2.2819926796286274,-1.3100554731973932,0.3593477740649172],"bias":0.5719874194909953}]}]}