{"n_inputs":24,"layers":[{"nodes":[{"weights":[-0.6071631560201525,1.397774374682006,0.3669348004243894,0.02613617808819331,1.6916562763588163,-0.20146736646662947,-0.7471331384564939,0.07684681881206877,-1.695523921161186,0.19732252841931608,-0.3932146684866256,-1.6381190756199022,0.5124870544462853,-0.4636840060929208,-0.39950419076736776,-0.23204224181402444,1.4183843963765923,-2.8803689517293214,-0.05119770203922,0.25572293878630303,0.8113430141440154,1.6057100760259564,0.21442997169914071,0.16837676636017712],"bias":1.1766365740667502},{"weights":[1.5648954202872594,-0.4207160694863069,-4.547914142843993,1.811020581809378,1.1114188684124495,-1.122390118082777,0.8201747754399931,1.574471146760423,1.7380710759478446,0.05332443403111406,-0.9480236180278176,-0.8255706003527696,0.27432056647549385,0.4507555516176716,-0.4218189915600995,-0.7529972782433165,-0.3288289174694309,1.8785373566240129,-0.45558955876383794,0.9733811444785772,0.4617700259786907,0.5856672225822437,-0.34873751505624684,-0.9253444922330686],"bias":0.2790275202566566},{"weights":[0.35037657778543063,-0.6436125431696407,0.3724340589711976,0.35951234672515153,-3.049715373549899,2.70517611809085,0.3555134741128979,-0.3893240594826279,-0.254361327333578,-0.6266802219997923,0.9836302751048246,0.6192683912795421,0.9891172910707569,-2.210110022954858,-0.6964182747066648,0.6016147230474387,-1.2912125092704363,0.3739523145151425,1.498121941990424,0.700853800182597,-0.2902061957093811,0.005253818972807689,-1.1115784798569912,-0.97434857837139],"bias":0.8426492030222565},{"weights":[3.587722880385163,-0.5003680678100743,0.14175046970943553,0.4586151589406303,-0.10682324542456514,-0.9803627612734483,-2.348955188591291,0.7256468876589632,-0.5904814764297552,0.7139423455091931,-0.9766395429063848,-0.4890600399018068,0.21143696875832732,-0.3281318981454113,-0.152664863761153,-0.09582267659200236,1.5685789469116964,0.4279660465216333,-0.7487810837683263,-0.6519248874066431,0.8726110080983229,1.227337137533626,0.401888668780761,-0.04992805642728794],"bias":-0.09133224797388144},{"weights":[1.0014498518599722,0.32165088739405356,-1.1711753931367677,0.9234706633985588,-0.47555910416989,-0.280271581209243,1.3161271485255992,-0.1087399598534147,0.4055159147859613,-1.7331224636240457,-0.1778568109896933,-1.0770709044792846,-0.550165569633217,1.2708018855075032,0.7502408574360848,-0.1401288729211264,0.6310263924883337,-1.7988477271205652,-0.024973230916079447,1.3443066506085484,-0.28969272643359884,0.9198060173120616,0.7744747557657163,-2.213466366998709],"bias":0.519601670052686},{"weights":[0.3722819710516539,0.35659067304040715,1.019045402915676,-0.86096015161275,1.50576497426012,0.3423833301864543,0.9710360347216244,-0.570748270543713,0.18362062045871996,-0.6613853097032464,-0.21072332349091424,-0.8753763675261534,0.13135710717702098,0.7484947881579758,2.404494862587981,-0.4182545239510624,-1.7262406888305522,0.910667744485408,-0.6287503131607585,0.32391298809642005,-0.647011453287909,2.3475978032729548,-1.1079123495085617,0.57629701609231],"bias":-0.6240156137158728},{"weights":[-1.8547278223714103,-0.5256284496183334,0.013159102148971008,1.0906706001115145,0.9470479022152982,1.7928024481998104,0.7096893911917719,-0.42054058702451713,0.2351723097984716,-0.5686279409555982,-1.0301492677671324,-0.4412351140240376,-0.5889989214576001,-1.0963607710313146,0.3187612140805618,-0.3631238703197865,0.5036239741140598,0.21059957088223347,0.41796739193970056,0.8649340281374298,1.3190874634164858,-0.28236935164710025,-0.48288757901469304,-1.6112072514472875],"bias":0.5463400295435452},{"weights":[-0.13014055744340786,0.5983755157720595,-2.1482366283681498,0.27716089829745866,-2.0876332447072588,0.10651475557959168,-0.2652372251300673,0.4984638106843971,0.7472997966766578,0.2178993992270256,-0.8372292692736161,-1.9255075084353075,0.259366410064636,0.8825465366901106,-0.3344982706689217,0.22468258963846083,0.35139192707426115,-1.130899595934263,-1.04265648755226,0.9058141017183254,0.5991780687663043,-0.5720522532510481,-0.2752607947501901,-0.6723311232717355],"bias":0.29638073228418516},{"weights":[-0.9195551888799898,-2.2689197103331793,0.3067430653733233,0.35515369516790596,1.0664543680305294,0.603001045386358,0.011999452898723742,-1.8301796715214975,0.3300077128592406,-0.6605018769006205,-1.574136887984051,1.8462428171932543,0.7003001596043655,1.295408262473677,0.1709753349642521,0.9150187133285208,1.300339143568073,-0.418783332586092,0.7265340245931099,0.182446609061108,0.1990624294674964,-1.121309633964096,-0.7369075448681591,-0.7412906868118853],"bias":1.219893431177658},{"weights":[0.08661684990657895,-0.1817797932499614,1.9790763973250096,1.5543234181823191,-0.5922557360461906,1.337336460084683,-0.68374516871909,0.6458615287663455,0.149161624301671,-0.7211865301020086,-2.0526578745543698,-0.03576264058492534,0.2951539332434274,0.47590606063101726,-1.1118985632777207,0.5991058465918644,0.7238940482931518,0.353428161803265,0.7740576244415155,0.18399457822008333,-0.12195446997900083,0.7792597985092804,-0.049800593321667155,0.5874805666396068],"bias":-0.4927772169902412},{"weights":[-0.22074839794930923,-0.23149862467606688,0.007892667962735009,-0.6160960720916399,0.27446433089593564,1.1529986364032685,1.4343289501712586,0.48194863986961695,-0.8141294338438071,-0.6901484974461956,-1.83337189347034,1.5768376111523004,-0.910758394872872,-0.756438401299905,-0.8179780639192269,0.1023460010962058,0.9546028683050244,1.3247895808127184,-1.9518205160445896,0.3790764125852462,-1.6034908671918304,0.6362549338255753,0.924432928176576,0.2164068489506635],"bias":-1.052389648339656},{"weights":[-0.394837276029992,0.7112711977449323,-2.7256288400652124,1.1303603495221617,-0.12009381383967913,0.7674495858246358,0.9392042828785394,-0.28714782220376656,0.6850904162549337,-1.1221158446302757,0.4945016986691141,-0.8502786999823809,0.5955971282309944,0.6697260493238466,0.39325875887023937,0.02738649627973966,0.23326744082130443,0.8761181675656485,-1.0719295719874122,1.1443913682879032,-2.293325889202619,-1.0629869683970044,0.23939029848734825,0.7803603858931394],"bias":0.3409152174570274},{"weights":[-0.15961489278884633,0.29307641526393463,1.9774707839129473,0.23681380264244312,1.917006814487304,0.28889844551725535,0.8676484793110266,0.622767995393247,0.09906770845618046,1.791762891913834,0.5803628193186361,-0.502284471397844,0.9473060478615478,0.9094070819151268,0.4521038378042097,0.1388315688046209,1.7430666778831554,-0.4429485172208734,0.1908367091077584,-0.00672426154570209,-0.2110189443010908,1.5779060466982653,1.498362695403334,0.08034016972946034],"bias":0.902671170109617},{"weights":[0.8039911532341044,-1.027870922197521,-0.6630946857249477,0.9347255280846772,1.3327092078169174,-1.4758532938821904,0.4419747953462677,0.8534838017873957,-1.452284215408149,0.413345808991296,-0.7524105247745638,0.5415176412113416,1.6313180085151635,-1.235397323865827,2.0033255374222936,-0.044465688053511226,1.2500541736013109,-1.319253956951052,-0.871671375266032,0.57435500643434,2.0468542154139966,0.14854779544668906,-0.6242614620271094,0.7251698344995687],"bias":-0.812312836018733},{"weights":[-0.3972802105194816,-0.6357737357580466,-0.9862230530272024,-0.4116356992375011,0.35424269061546076,-0.4551017362989921,-1.0491514397778234,0.3520346365636834,-0.5048996812111594,-0.32578840591004676,-1.0687426429482898,-0.6553035617742257,-0.18570646087658443,-0.7053124317101795,-0.9004673657071901,1.3453312508843378,0.7049680207071767,0.4478885400168007,1.4205508510629432,1.2731986859367417,-0.5125984951149658,0.032171386932942594,0.3448945370837586,-1.1778961377324966],"bias":-0.33317758089007377},{"weights":[1.784909432177159,0.10569248675123284,1.4945765786115672,-0.04725360240300748,0.27338909505133635,1.3883916196682362,-1.2181498300088565,-0.09348045373275256,-1.86197781842427,-0.8657311431793435,1.3280430109135135,-1.005185559528749,1.1335567780525275,0.7694087255892532,-0.47114957674234936,1.1825665925603197,-0.7232196694241155,-1.897358869918231,1.6132780862539569,1.045282356305885,-0.58420584940494,-1.0649518417425847,0.7814210844186011,-0.9196859293075268],"bias":-1.7441823356756834}]},{"nodes":[{"weights":[0.7040553946267865,0.9282031470212032,-0.4199334888651613,-0.04662581657559217,0.6768515010329306,0.042170459984436845,-0.08176865875168557,1.385793235855456,-1.0029132398386085,-0.15753665106199696,0.6115642783815927,-0.6914810109595546,-0.28536488091023404,-0.2610001433048274,-0.4887277633445515,-1.5482856414998958],"bias":-0.5589038780435509},{"weights":[-0.4056142709614868,0.07946159611415707,0.4873304108872215,0.06417384483582601,1.2032830594500497,-1.1581312044673264,2.0592471902309812,2.4403994490899956,0.4269146309614157,-0.04242573467333016,-0.5378345731317802,-0.6418641758364023,1.6457956868495325,-0.6511832677218272,-2.025467943163612,-0.9507598876390192],"bias":-1.5347179396813335},{"weights":[1.1989147807595797,-0.6587875978081092,0.8873161378773265,-0.12655282198198364,-1.0110986502832062,-0.4447322333203485,0.1917167768539712,-0.7133031397786342,-0.1361574850931557,-0.193292738485231,-0.39489454738467106,-1.33127640082427,0.9327056180446084,1.4679006975346651,-2.9329985653521047,-0.6530305113468551],"bias":-1.4013324133219742},{"weights":[0.903421411527365,-0.7989726300531484,1.8858703875558176,0.6266017233106168,-0.5884851095686585,-0.7000653450423433,-0.6988764586251471,0.02561367833409374,-1.1900147572093709,0.30144008506074654,1.2312994580808552,1.0020489152613383,-0.4369030355171723,-2.0794242041398836,0.6308589496706463,-1.6644298779525784],"bias":-0.3898417571522784},{"weights":[0.5321056380376625,-0.012285410817697774,1.6274918089319963,2.013156264611368,1.369855205248658,-0.7572780913860299,-0.7382677705904442,-1.0560931155728903,-0.13295502691449357,-0.7380453155842671,-0.771310825338034,-1.4039324289069433,1.6296117216919035,-0.7707626941432159,-1.3263488606913814,0.6951790978492279],"bias":-0.5329198991346819},{"weights":[-1.2200469393043694,0.3406966216892746,0.19659106407744137,0.4832121644901608,-0.4106928231417448,0.5595734022216331,-1.5608823153484035,1.6082369806338688,0.6169532510649914,1.3010638920738025,0.2481554272362002,-0.4434082022115102,0.8818671417720116,-1.226827884563778,-2.230441399696975,0.7811057934072101],"bias":1.1591224733171297},{"weights":[-1.3741770144501029,2.0851477893190813,-0.07637970322313059,-0.0916052224340296,0.7369506972444652,-1.343283835666595,1.161435254435906,1.464381879930431,-0.30111995590643464,1.5750437604516423,0.01405785792159965,-2.458775659839759,-0.6288874320210611,0.5256702378169777,-1.420252077857736,-0.1588270235697155],"bias":-0.008284768147599403},{"weights":[0.6479781190689335,0.982192314441884,1.0134027633712954,0.449457342990003,-0.24509503245816416,-0.877559628529996,-1.103393189319302,0.5029228666147927,-0.4234070255714176,-1.7566037371845882,2.345149630408043,-2.250346351638883,0.24189829180438743,-0.2811239248229785,-0.5326909513852347,-0.6777924514818635],"bias":-0.9095985975347024}]},{"nodes":[{"weights":[-0.24419777946036436,-0.47722588478545025,0.6826901619338608,-0.1086154477005792,-0.7967900307071594,0.267970101798938,-0.7206272671587861,-1.1089822565674554],"bias":1.113162112243765},{"weights":[0.5903341578026069,0.9620987852665572,1.3205884329533313,0.13245976156597855,-0.6449459058752531,-0.04409938826777908,-0.02228076078850089,-0.6096634133282963],"bias":2.1322522874332672},{"weights":[-0.4003763228149268,-1.606472735495749,0.22034325214096884,0.8087940078563532,-2.083769044271895,0.3291617284862377,-0.7283387190120763,1.4935959581680127],"bias":1.028581486259691},{"weights":[0.21789900633013984,-0.346397627442255,0.36796009001862895,0.7264987274398793,-0.10654471388742204,2.0005169941952294,-0.21196607646248203,0.9035588852974108],"bias":1.4545618007931294}]}]}