{"n_inputs":24,"layers":[{"nodes":[{"weights":[-0.9068416383307946,0.8834300096493932,0.4707552334315771,0.596247767615142,0.5903834271334764,0.5589576856083406,-0.9741945714994853,-0.7872401978313898,-1.0039235814716303,0.5829775327529728,0.8913183101189983,-0.23791272627839924,-1.1361931290639424,-0.6131133463605363,0.6417163773259315,-1.0912718238570944,0.944381243777647,-0.08826676285936144,0.14849697599567135,-0.48057880817091,-0.2077494457393435,-0.08732172763247306,-0.7166184772276216,0.13165941677189863],"bias":0.38742515093379326},{"weights":[1.5454184203108163,0.5009072911444664,0.33605239392562825,-0.11263156294910326,-0.3377952119101971,-0.3457079789791748,-0.0651228318963305,1.0021723099465782,0.2800404473381529,0.27616165394547953,-0.7137528939415305,-1.0233979522637164,0.8544102915694426,0.2521681048168475,-0.52478415671791,-0.47495332229367593,1.0615738009132254,-0.7647446023963913,-0.7690120154539983,0.909986059954942,0.32397853600229987,-0.2493251163164064,-0.5873186332332507,0.21435259115520042],"bias":-0.8900270615297852},{"weights":[-0.48888495295600415,0.18381716367913062,-0.26694611001335206,-0.4548367950921974,0.5434505272391137,-0.47062597046201293,1.2209156630398135,-0.9990246661453857,0.5272075474320382,-0.28897433548766066,0.2345095904461205,0.7298612843711246,0.28416879969467124,-0.6833870917292801,0.5556174361682255,0.3258320648033767,0.16448894405012388,-0.42143902349658147,0.20706836735709805,0.3394961217733903,0.5590798329438155,-0.3777369461859888,-1.0274563301906043,-0.8186372638811985],"bias":0.10040738215343575},{"weights":[0.6087531861856832,0.22570483586077605,-0.16125576954452436,0.1573318708895412,0.842569068466411,-0.5031455330425808,-1.1176533682866903,1.1249519643302999,-0.9486588366535998,-0.26572263362673576,-0.02149432622728592,1.1531356420508383,-0.13732090264652558,-0.3424099710867087,0.7470890464571217,-0.4937026738358597,-0.28144501464029914,0.8756552850828765,-0.7258101660136522,0.3226116025943859,0.12591159326229379,-0.23774418441660597,-0.517149814832297,-0.30573806730695324],"bias":0.3613858093455503},{"weights":[-0.3307265432345591,-0.5079341152948711,1.0126024571518846,0.832739810770991,0.5797008124570883,0.33800508300425175,0.7620903115614308,0.2565745277279339,-1.2505073793394548,-0.04120381281169297,-0.7703763002497355,0.927725710479134,-0.9675292288150964,-0.7851404449129633,-0.4325225954818569,0.1796675656148136,0.2988212215504549,0.00537649646854374,-0.7143709923692295,0.06126184617177656,0.7296036282824933,-0.503771448809478,0.038259960367204596,-0.6728247232459851],"bias":0.5004460837805614},{"weights":[0.8091011968300323,0.5997141182613316,-1.3823814530460459,-0.8075690631255004,-0.031088180480425776,-0.9125773597793219,-1.0564885068762595,-0.5044317373065844,0.24258351041823045,0.1558853275964298,0.04173121259490038,0.280181221423556,0.6860635914961213,-0.3960562951089127,-0.11853724313535663,0.7297446161042517,-0.14479084240508922,-0.4577563353685282,0.08486620255707639,-0.17121166419088002,0.9412671921948442,1.0524969205053734,0.5990170477968352,0.531839942986678],"bias":-0.5681057494333374},{"weights":[-0.6572559467958011,0.1147155027413916,-0.00842612402492171,-0.37539625753969486,-0.5820371647622019,0.46629658675394864,1.03155339816848,0.011762721105126259,-0.8435136929230175,-0.10737049170265026,-0.7561748796284627,-0.02201477015037026,0.14136041314432002,-0.6044840139220617,-0.618865031677761,0.21209100288542798,0.3397520100219561,-0.08909481197092045,-0.680615235571,0.30060566968941044,0.09152748346608386,0.2453778440689418,-0.8518725022532048,0.9889768012577694],"bias":-0.5465794778014623},{"weights":[-0.12575007967925625,-0.5887198422314988,0.9964857608387516,0.18858287017738085,-1.2066106153306992,-0.9148503174266079,-0.1823502775969345,-0.4155886659902599,-0.8755636339037562,-0.703678147433138,-0.5400433136567097,-0.2638491795742211,-0.8359361743196057,-0.044317426220832234,0.703909523406555,0.13718887248992837,-0.4106517283354262,0.648851941591839,0.9952912330911275,-0.10967004886581624,-1.1728146229084544,1.103168813151028,-0.2115712842719291,0.04695445321223921],"bias":0.13053429037487468},{"weights":[-0.88367685428057,-0.9179017910005469,-0.20413331522541722,0.5891624138394163,-0.31800742735693044,0.7533676582318645,0.08905040936723448,1.1079897750775234,0.00835454705298086,0.7961852735784032,-0.563833117265684,0.4557110156936923,-0.8249693612647895,0.29989510877968995,-0.17889333933875606,0.439800955428987,-0.16939313991183585,-0.10747593232180266,-0.8490159357321388,0.6184573168798322,-0.3663898235247176,0.651178710955073,1.0158655212154126,-0.6467212700804145],"bias":-1.1291001820006346},{"weights":[-1.6377792708669563,0.297164863111576,-0.5951975921131649,-0.4054366444571442,-0.7648342145823721,-0.23439855903918302,-0.6330646879927183,-0.2756107763448463,0.9590251774049454,0.07486732237372247,0.17847390688598752,-1.1383803226103488,-1.0292591746560735,0.7149609925880447,0.5199939303971248,0.21203286873004915,-0.5156820316618208,-0.7324355591687781,0.3953747002165885,-0.044187017710555054,-0.6911044245229668,-0.18417381937498345,0.0032647991447693064,0.5894239842047831],"bias":1.5993950033860085},{"weights":[0.3455093151829828,0.5227913419650994,-0.9217093462269358,-0.4304128910306145,0.24184911563401282,0.2885961161801566,-0.5818935390961862,-0.8305911695124775,-0.09306455852666014,0.5178394733098102,0.0005633018130836651,0.0036222987680167226,-0.15723103461052085,-0.04155093522957243,-0.45496742440645405,0.6870416826403871,-0.8439632616444189,0.6651716499688318,0.5404694859698498,0.13455483796497678,-0.4063329122825705,0.5776729032365442,-0.09574917753187039,-0.7051553392257537],"bias":-0.6051685078881157},{"weights":[1.1678030832764137,-1.0332751867663195,-1.2378684450607362,0.5119557195815342,0.8725962653289958,-0.03342844441604376,0.4612853542919902,-0.0218982199678545,1.7870901271234088,-0.1018693208159798,-0.39759241399395046,0.07790136320778782,0.18051676825770976,-0.9696412740836454,0.3246936083223725,-0.9393946412742015,-0.3892774317267898,0.050010086010173385,0.7719199956116917,1.266223900903208,0.1115485236426693,-0.8785338999913933,0.23874102424719026,0.006757107845179591],"bias":0.15998765292326902},{"weights":[-0.5566602863748336,0.35360144977860775,0.7800208860623437,-0.7046995821492419,-0.09244810827471313,-1.0237253024145845,-0.0873488900502845,1.0968498490220144,-0.7913912267977907,-0.9322360077975809,0.5057256922907986,-0.3144370389479706,-0.3264910230998337,0.6845489487846776,-0.2587768246817465,0.3572208498099011,-0.5420630142431944,0.1262170926996652,0.6501474252345221,0.2173853756684401,-0.5816615951289855,-1.117290411786655,-0.5476771420621184,0.11709740412176536],"bias":0.48109934218914874},{"weights":[1.0876510213848787,-0.9071488316130965,0.2833207219048468,-0.6700526610235834,-0.9009497917034959,-0.2019593882917238,0.9231395386177335,-0.511737465576494,0.6593596885060863,0.317279176479497,1.4850366145144742,-0.867233495878823,-0.12427462378009271,0.3457152131599174,-0.1478008706998241,1.8808460717367996,-0.5890576996803922,0.5284873288140605,0.40447195630325816,0.34951726293759916,0.6971578167871605,-0.3789747512774789,0.21268673270067479,0.3398205605126354],"bias":-0.8237929716327481},{"weights":[0.2956393306393607,0.514861304099317,-0.9952659251147623,-0.5235971362074504,-0.31778114163747756,-0.6957909058348474,-0.6554650885153194,0.2618083242730364,-0.011978598413220916,-0.3923797853823737,1.4910099839473,0.5947305022533008,0.03543757080999946,0.553375828308331,-0.050618399319499685,-0.046997224143536326,0.2880013675201884,-1.2041364008501467,0.17424819978285855,0.7039641348321826,0.09490196944185578,-0.768707733125638,-0.7026169218142769,-0.9054165234151951],"bias":-0.8289195735660785},{"weights":[-0.5256750076503877,0.7208686390524363,0.8104548567460337,-0.6961710639571184,-0.01733964069645952,-0.6761923361161024,-0.8846290207551298,0.025989447338518518,-0.18884527029342194,1.048224565025824,0.6704450652942077,-0.2731973364707628,1.9561664391840872,-0.6047622036774378,-0.23817274530151866,0.40618424096724537,-0.1512611525650566,0.27849152710722846,0.6022273833682391,-0.0643062169679976,-0.3038284925845197,0.4156220712527016,0.6680659631393775,0.585367105421727],"bias":-0.20012923916695097}]},{"nodes":[{"weights":[-0.7061003783177212,-0.08542607828089116,-0.496996223969633,0.9364948906999288,-0.031066129546975865,-0.3486855338043318,-0.42093905435915485,-1.2658985677926706,-0.2431283844442474,-0.14432115942419702,0.23684828969540234,0.16198242497169832,0.5860377656169855,-0.17486471238372342,-0.5747920725725778,0.08759463827860488],"bias":0.38216926832373044},{"weights":[-0.7079149212972093,1.450896332182437,-0.48729156376018745,-0.5861867245289185,-0.8567972578440572,0.07686357507479388,0.1930698934206146,-0.13748407465367238,-0.20368570186680268,-0.963187980341789,-0.059699848529550986,0.156045636838613,0.8499713887911722,-0.8950467469978728,-0.5149943184077718,-1.180334380337367],"bias":1.6893777413122444},{"weights":[0.620568886904894,0.22343824540377988,-0.18457158233560206,-0.8763330853330283,0.422565331283385,0.8199065619867272,-1.0620156149246354,0.05411562448123991,-0.3046174315588672,0.2997727787796674,0.10275437969918161,-0.29405034419629483,1.0719216387945196,0.9627778284933315,0.5373293860071573,-0.6624418185490372],"bias":-0.23985405951257754},{"weights":[-0.13198364018040648,-0.955951633676856,0.9869061338082407,-0.5347924476347362,0.9052750577802059,0.07580319399482834,-1.1049550803566541,-1.110762298801406,0.5398804450465995,0.5759497972912189,0.27359574719416907,-0.9738721261784973,0.15714611815456922,-0.5641414806022165,-0.7550490471749037,1.3302900137577456],"bias":-0.38749686588363874},{"weights":[-0.9963303318127997,-0.6879877608428022,-0.20106972908096457,-0.7650688031359052,-0.3257936663712272,0.8632140712616694,0.9502098130242502,0.08428893266532914,-0.49726416961082487,-0.1651493127526443,-0.7387932218972761,-0.731021663412634,-0.07323813006020358,1.0713467878998446,-0.3543261705891468,0.13153515492855433],"bias":0.8777270311757585},{"weights":[-0.8742503959951399,-0.5712269566460881,0.007002720637927076,0.4323377188385652,0.96060650787819,-0.1474750457645243,-0.6451458482791712,-0.12899801264067304,-1.362592052786942,-1.0880434931344611,0.7394512516868292,-0.5620538486767349,-0.10688150774375677,0.21042182840409857,-0.5645719861376567,-0.48528473444430065],"bias":-0.9025050190970297},{"weights":[0.8872008928295055,0.7076930667804826,0.4173073873895446,-0.31024298621399604,-0.8724342715964065,0.6200990619027413,-0.09203493703378403,0.8988786829203547,-0.9994831782741689,0.4657206958621486,-0.8850581885454546,-1.5045590170142347,-0.9823228005927676,0.17514670167972116,-0.3792255773302373,-0.8620077842446634],"bias":-0.4616084928317054},{"weights":[0.5009277664698154,0.5239618921590896,-0.28490155882788465,-0.6552079996272904,-0.20827952131079708,-0.41967350379947055,-0.1466349573806277,0.22642231039050587,0.5235157583998098,0.9128781634781666,-0.29817824000355897,0.5922103498054976,0.5145534219236785,-0.7419810480339495,0.09387217143841611,0.33834498337812813],"bias":-0.3257975239364187}]},{"nodes":[{"weights":[0.13383917159127184,0.19884674237184272,-1.4863923565738266,1.417478747397598,0.16655427322280675,-0.01593168123977265,0.2991592190299208,-0.18555162987524584],"bias":0.2794076513107876},{"weights":[-1.3665541174115152,-0.629965704259364,0.8794503487448169,-0.07336382292066129,-0.243661174296068,-0.9731641496521779,0.355611372763344,0.04598773941241886],"bias":1.4158932122885866},{"weights":[0.24622360457858722,0.5696735777350285,0.5407559687929914,0.5869342133329819,1.5174860937329981,-0.09456510904584389,-0.2710899248329057,-1.075243668942694],"bias":0.49022152205215597},{"weights":[1.0609475978388638,0.538165826662892,-0.022607066191773148,-0.22141555568812887,-0.08195880440189635,0.3892374896283132,-0.0884753754824404,-0.2705881805051176],"bias":0.7814320887527244}]}]}